<?xml version="1.0"?>
<opencv_storage>
<cascade>
  <stageType>BOOST</stageType>
  <featureType>HAAR</featureType>
  <height>24</height>
  <width>24</width>
  <stageParams>
    <boostType>GAB</boostType>
    <minHitRate>9.9500000476837158e-01</minHitRate>
    <maxFalseAlarm>5.0000000000000000e-01</maxFalseAlarm>
    <weightTrimRate>9.4999999999999996e-01</weightTrimRate>
    <maxDepth>1</maxDepth>
    <maxWeakCount>100</maxWeakCount></stageParams>
  <featureParams>
    <maxCatCount>0</maxCatCount>
    <featSize>1</featSize>
    <mode>BASIC</mode></featureParams>
  <stageNum>20</stageNum>
  <stages>
    <!-- stage 0 -->
    <_>
      <maxWeakCount>1</maxWeakCount>
      <stageThreshold>3.2467532157897949e-01</stageThreshold>
      <weakClassifiers>
        <_>
          <internalNodes>
            0 -1 60 3.7766905734315515e-04</internalNodes>
          <leafValues>
            3.2467532157897949e-01 -1.</leafValues></_></weakClassifiers></_>
    <!-- stage 1 -->
    <_>
      <maxWeakCount>3</maxWeakCount>
      <stageThreshold>-4.1066882014274597e-01</stageThreshold>
      <weakClassifiers>
        <_>
          <internalNodes>
            0 -1 20 1.3176172971725464e-01</internalNodes>
          <leafValues>
            -6.0000002384185791e-01 1.</leafValues></_>
        <_>
          <internalNodes>
            0 -1 18 -3.9201617240905762e-02</internalNodes>
          <leafValues>
            9.1188544034957886e-01 -4.6594256162643433e-01</leafValues></_>
        <_>
          <internalNodes>
            0 -1 37 3.6283112131059170e-03</internalNodes>
          <leafValues>
            -7.0175319910049438e-01 6.5527373552322388e-01</leafValues></_></weakClassifiers></_>
    <!-- stage 2 -->
    <_>
      <maxWeakCount>3</maxWeakCount>
      <stageThreshold>-7.5214916467666626e-01</stageThreshold>
      <weakClassifiers>
        <_>
          <internalNodes>
            0 -1 6 2.1979799866676331e-01</internalNodes>
          <leafValues>
            -5.6800001859664917e-01 8.4615385532379150e-01</leafValues></_>
        <_>
          <internalNodes>
            0 -1 23 -1.1110275983810425e-02</internalNodes>
          <leafValues>
            6.9711130857467651e-01 -5.8954370021820068e-01</leafValues></_>
        <_>
          <internalNodes>
            0 -1 63 1.6075122402980924e-05</internalNodes>
          <leafValues>
            4.0539455413818359e-01 -1.</leafValues></_></weakClassifiers></_>
    <!-- stage 3 -->
    <_>
      <maxWeakCount>4</maxWeakCount>
      <stageThreshold>-9.4047850370407104e-01</stageThreshold>
      <weakClassifiers>
        <_>
          <internalNodes>
            0 -1 21 4.4484287500381470e-02</internalNodes>
          <leafValues>
            -5.7142859697341919e-01 9.2000001668930054e-01</leafValues></_>
        <_>
          <internalNodes>
            0 -1 27 8.7560567772015929e-04</internalNodes>
          <leafValues>
            -5.4934716224670410e-01 6.2004625797271729e-01</leafValues></_>
        <_>
          <internalNodes>
            0 -1 41 -2.7483704034239054e-03</internalNodes>
          <leafValues>
            8.0063402652740479e-01 -4.2861446738243103e-01</leafValues></_>
        <_>
          <internalNodes>
            0 -1 56 5.4513092618435621e-04</internalNodes>
          <leafValues>
            -5.6048172712326050e-01 6.7722380161285400e-01</leafValues></_></weakClassifiers></_>
    <!-- stage 4 -->
    <_>
      <maxWeakCount>3</maxWeakCount>
      <stageThreshold>-2.1922037005424500e-01</stageThreshold>
      <weakClassifiers>
        <_>
          <internalNodes>
            0 -1 16 -5.5461138254031539e-04</internalNodes>
          <leafValues>
            -9.3333333730697632e-01 7.6923079788684845e-02</leafValues></_>
        <_>
          <internalNodes>
            0 -1 57 1.4193315291777253e-04</internalNodes>
          <leafValues>
            3.0952405929565430e-01 -8.0959874391555786e-01</leafValues></_>
        <_>
          <internalNodes>
            0 -1 24 -8.6496919393539429e-03</internalNodes>
          <leafValues>
            5.1345527172088623e-01 -5.8760696649551392e-01</leafValues></_></weakClassifiers></_>
    <!-- stage 5 -->
    <_>
      <maxWeakCount>5</maxWeakCount>
      <stageThreshold>-6.2276256084442139e-01</stageThreshold>
      <weakClassifiers>
        <_>
          <internalNodes>
            0 -1 34 -3.5950310528278351e-02</internalNodes>
          <leafValues>
            7.5000000000000000e-01 -5.2755904197692871e-01</leafValues></_>
        <_>
          <internalNodes>
            0 -1 36 -6.0911253094673157e-03</internalNodes>
          <leafValues>
            -7.4331331253051758e-01 3.3349576592445374e-01</leafValues></_>
        <_>
          <internalNodes>
            0 -1 53 3.2382323406636715e-03</internalNodes>
          <leafValues>
            -3.6855718493461609e-01 7.7687728404998779e-01</leafValues></_>
        <_>
          <internalNodes>
            0 -1 33 8.0969519913196564e-03</internalNodes>
          <leafValues>
            3.8029158115386963e-01 -7.8604459762573242e-01</leafValues></_>
        <_>
          <internalNodes>
            0 -1 43 -1.7585884779691696e-02</internalNodes>
          <leafValues>
            7.7209472656250000e-01 -4.1953197121620178e-01</leafValues></_></weakClassifiers></_>
    <!-- stage 6 -->
    <_>
      <maxWeakCount>3</maxWeakCount>
      <stageThreshold>-3.4370180964469910e-01</stageThreshold>
      <weakClassifiers>
        <_>
          <internalNodes>
            0 -1 19 5.8612067252397537e-02</internalNodes>
          <leafValues>
            -5.7024794816970825e-01 6.6666668653488159e-01</leafValues></_>
        <_>
          <internalNodes>
            0 -1 22 1.5473550185561180e-02</internalNodes>
          <leafValues>
            -4.0951648354530334e-01 8.1690013408660889e-01</leafValues></_>
        <_>
          <internalNodes>
            0 -1 14 -1.8820984289050102e-02</internalNodes>
          <leafValues>
            6.3606262207031250e-01 -5.3718066215515137e-01</leafValues></_></weakClassifiers></_>
    <!-- stage 7 -->
    <_>
      <maxWeakCount>2</maxWeakCount>
      <stageThreshold>-3.4917378425598145e-01</stageThreshold>
      <weakClassifiers>
        <_>
          <internalNodes>
            0 -1 41 -2.0830249413847923e-03</internalNodes>
          <leafValues>
            4.8717948794364929e-01 -6.0714286565780640e-01</leafValues></_>
        <_>
          <internalNodes>
            0 -1 46 -1.1511370394146070e-04</internalNodes>
          <leafValues>
            -8.3635324239730835e-01 3.8936662673950195e-01</leafValues></_></weakClassifiers></_>
    <!-- stage 8 -->
    <_>
      <maxWeakCount>4</maxWeakCount>
      <stageThreshold>-4.5594447851181030e-01</stageThreshold>
      <weakClassifiers>
        <_>
          <internalNodes>
            0 -1 5 2.6150846481323242e-01</internalNodes>
          <leafValues>
            -5.6800001859664917e-01 8.4615385532379150e-01</leafValues></_>
        <_>
          <internalNodes>
            0 -1 35 1.0773654503282160e-04</internalNodes>
          <leafValues>
            4.8835334181785583e-01 -7.8004848957061768e-01</leafValues></_>
        <_>
          <internalNodes>
            0 -1 2 -4.7792418627068400e-04</internalNodes>
          <leafValues>
            -7.7362978458404541e-01 4.5116719603538513e-01</leafValues></_>
        <_>
          <internalNodes>
            0 -1 1 -6.4222622313536704e-05</internalNodes>
          <leafValues>
            -8.2746505737304688e-01 5.2535527944564819e-01</leafValues></_></weakClassifiers></_>
    <!-- stage 9 -->
    <_>
      <maxWeakCount>3</maxWeakCount>
      <stageThreshold>-7.9150058329105377e-02</stageThreshold>
      <weakClassifiers>
        <_>
          <internalNodes>
            0 -1 9 7.8628398478031158e-04</internalNodes>
          <leafValues>
            4.3999999761581421e-01 -7.0297032594680786e-01</leafValues></_>
        <_>
          <internalNodes>
            0 -1 58 -1.5894449315965176e-03</internalNodes>
          <leafValues>
            -9.3326061964035034e-01 3.1803244352340698e-01</leafValues></_>
        <_>
          <internalNodes>
            0 -1 11 -2.2098587942309678e-04</internalNodes>
          <leafValues>
            -8.3718246221542358e-01 4.3965110182762146e-01</leafValues></_></weakClassifiers></_>
    <!-- stage 10 -->
    <_>
      <maxWeakCount>2</maxWeakCount>
      <stageThreshold>-5.6834757328033447e-01</stageThreshold>
      <weakClassifiers>
        <_>
          <internalNodes>
            0 -1 4 1.3496514293365180e-04</internalNodes>
          <leafValues>
            3.3333334326744080e-01 -7.5824177265167236e-01</leafValues></_>
        <_>
          <internalNodes>
            0 -1 65 3.4424501791363582e-05</internalNodes>
          <leafValues>
            3.5467907786369324e-01 -9.0168088674545288e-01</leafValues></_></weakClassifiers></_>
    <!-- stage 11 -->
    <_>
      <maxWeakCount>4</maxWeakCount>
      <stageThreshold>-6.1313188076019287e-01</stageThreshold>
      <weakClassifiers>
        <_>
          <internalNodes>
            0 -1 0 -2.2717294996255077e-05</internalNodes>
          <leafValues>
            -9.0163934230804443e-01 6.6666670143604279e-02</leafValues></_>
        <_>
          <internalNodes>
            0 -1 32 5.9452513232827187e-03</internalNodes>
          <leafValues>
            -3.7536239624023438e-01 8.9403891563415527e-01</leafValues></_>
        <_>
          <internalNodes>
            0 -1 39 -6.0678798035951331e-05</internalNodes>
          <leafValues>
            5.7252693176269531e-01 -3.9396467804908752e-01</leafValues></_>
        <_>
          <internalNodes>
            0 -1 62 1.0630289034452289e-04</internalNodes>
          <leafValues>
            3.2945930957794189e-01 -8.7696307897567749e-01</leafValues></_></weakClassifiers></_>
    <!-- stage 12 -->
    <_>
      <maxWeakCount>4</maxWeakCount>
      <stageThreshold>-6.2326246500015259e-01</stageThreshold>
      <weakClassifiers>
        <_>
          <internalNodes>
            0 -1 40 -5.8836804237216711e-04</internalNodes>
          <leafValues>
            6.3636362552642822e-01 -5.9322035312652588e-01</leafValues></_>
        <_>
          <internalNodes>
            0 -1 26 -1.2593214400112629e-02</internalNodes>
          <leafValues>
            1. -3.2716169953346252e-01</leafValues></_>
        <_>
          <internalNodes>
            0 -1 47 -2.9498719959519804e-04</internalNodes>
          <leafValues>
            8.3856308460235596e-01 -3.3382058143615723e-01</leafValues></_>
        <_>
          <internalNodes>
            0 -1 38 -1.2033266248181462e-03</internalNodes>
          <leafValues>
            6.4153677225112915e-01 -5.4144352674484253e-01</leafValues></_></weakClassifiers></_>
    <!-- stage 13 -->
    <_>
      <maxWeakCount>4</maxWeakCount>
      <stageThreshold>-4.9159201979637146e-01</stageThreshold>
      <weakClassifiers>
        <_>
          <internalNodes>
            0 -1 42 -3.5822816425934434e-04</internalNodes>
          <leafValues>
            5.6097561120986938e-01 -6.5454542636871338e-01</leafValues></_>
        <_>
          <internalNodes>
            0 -1 3 -3.5509730223566294e-03</internalNodes>
          <leafValues>
            -7.3423975706100464e-01 3.9998802542686462e-01</leafValues></_>
        <_>
          <internalNodes>
            0 -1 7 -1.2966239824891090e-02</internalNodes>
          <leafValues>
            -9.1929686069488525e-01 3.0336204171180725e-01</leafValues></_>
        <_>
          <internalNodes>
            0 -1 17 1.5238359570503235e-01</internalNodes>
          <leafValues>
            -5.4039663076400757e-01 6.1579030752182007e-01</leafValues></_></weakClassifiers></_>
    <!-- stage 14 -->
    <_>
      <maxWeakCount>2</maxWeakCount>
      <stageThreshold>-5.2831989526748657e-01</stageThreshold>
      <weakClassifiers>
        <_>
          <internalNodes>
            0 -1 55 -1.3589236186817288e-04</internalNodes>
          <leafValues>
            -7.3333334922790527e-01 2.7868852019309998e-01</leafValues></_>
        <_>
          <internalNodes>
            0 -1 61 -5.2523182239383459e-04</internalNodes>
          <leafValues>
            -8.0700844526290894e-01 3.5062035918235779e-01</leafValues></_></weakClassifiers></_>
    <!-- stage 15 -->
    <_>
      <maxWeakCount>4</maxWeakCount>
      <stageThreshold>-7.3198980093002319e-01</stageThreshold>
      <weakClassifiers>
        <_>
          <internalNodes>
            0 -1 13 2.1779481903649867e-04</internalNodes>
          <leafValues>
            1.3157895207405090e-01 -7.8666669130325317e-01</leafValues></_>
        <_>
          <internalNodes>
            0 -1 8 -2.8232706245034933e-04</internalNodes>
          <leafValues>
            -8.6624962091445923e-01 2.5194904208183289e-01</leafValues></_>
        <_>
          <internalNodes>
            0 -1 52 1.6413904959335923e-03</internalNodes>
          <leafValues>
            5.0120043754577637e-01 -5.8353757858276367e-01</leafValues></_>
        <_>
          <internalNodes>
            0 -1 30 -1.0948897397611290e-04</internalNodes>
          <leafValues>
            6.2951892614364624e-01 -5.3198021650314331e-01</leafValues></_></weakClassifiers></_>
    <!-- stage 16 -->
    <_>
      <maxWeakCount>5</maxWeakCount>
      <stageThreshold>-3.9022475481033325e-01</stageThreshold>
      <weakClassifiers>
        <_>
          <internalNodes>
            0 -1 28 -1.2608608230948448e-03</internalNodes>
          <leafValues>
            6.7741936445236206e-01 -5.8333331346511841e-01</leafValues></_>
        <_>
          <internalNodes>
            0 -1 50 -4.3187465053051710e-04</internalNodes>
          <leafValues>
            7.6435339450836182e-01 -4.7844484448432922e-01</leafValues></_>
        <_>
          <internalNodes>
            0 -1 45 -9.7768870182335377e-04</internalNodes>
          <leafValues>
            -8.3936357498168945e-01 4.3332508206367493e-01</leafValues></_>
        <_>
          <internalNodes>
            0 -1 31 -2.5006184354424477e-02</internalNodes>
          <leafValues>
            5.6091201305389404e-01 -5.2548313140869141e-01</leafValues></_>
        <_>
          <internalNodes>
            0 -1 59 -1.9641863182187080e-03</internalNodes>
          <leafValues>
            9.2919081449508667e-01 -3.1074771285057068e-01</leafValues></_></weakClassifiers></_>
    <!-- stage 17 -->
    <_>
      <maxWeakCount>4</maxWeakCount>
      <stageThreshold>-1.1748690605163574e+00</stageThreshold>
      <weakClassifiers>
        <_>
          <internalNodes>
            0 -1 29 2.7476344257593155e-03</internalNodes>
          <leafValues>
            -5.1145040988922119e-01 8.9999997615814209e-01</leafValues></_>
        <_>
          <internalNodes>
            0 -1 51 -1.1770775745389983e-04</internalNodes>
          <leafValues>
            -8.1090450286865234e-01 3.7012982368469238e-01</leafValues></_>
        <_>
          <internalNodes>
            0 -1 54 -3.2386458478868008e-03</internalNodes>
          <leafValues>
            7.3409712314605713e-01 -3.6776861548423767e-01</leafValues></_>
        <_>
          <internalNodes>
            0 -1 15 8.4044455434195697e-05</internalNodes>
          <leafValues>
            4.4394451379776001e-01 -6.6577988862991333e-01</leafValues></_></weakClassifiers></_>
    <!-- stage 18 -->
    <_>
      <maxWeakCount>2</maxWeakCount>
      <stageThreshold>-3.4919399023056030e-01</stageThreshold>
      <weakClassifiers>
        <_>
          <internalNodes>
            0 -1 64 -1.9479428010527045e-04</internalNodes>
          <leafValues>
            -8.8571429252624512e-01 1.6049382090568542e-01</leafValues></_>
        <_>
          <internalNodes>
            0 -1 44 1.7289726529270411e-03</internalNodes>
          <leafValues>
            -5.0968784093856812e-01 6.3088274002075195e-01</leafValues></_></weakClassifiers></_>
    <!-- stage 19 -->
    <_>
      <maxWeakCount>5</maxWeakCount>
      <stageThreshold>-8.2068687677383423e-01</stageThreshold>
      <weakClassifiers>
        <_>
          <internalNodes>
            0 -1 49 -3.1272590160369873e-02</internalNodes>
          <leafValues>
            7.5999999046325684e-01 -5.3968256711959839e-01</leafValues></_>
        <_>
          <internalNodes>
            0 -1 48 -7.7439821325242519e-05</internalNodes>
          <leafValues>
            -6.3325601816177368e-01 5.1700311899185181e-01</leafValues></_>
        <_>
          <internalNodes>
            0 -1 25 9.0635678498074412e-04</internalNodes>
          <leafValues>
            -5.0046837329864502e-01 7.0078176259994507e-01</leafValues></_>
        <_>
          <internalNodes>
            0 -1 12 3.5707420465769246e-05</internalNodes>
          <leafValues>
            4.8310586810112000e-01 -7.9974162578582764e-01</leafValues></_>
        <_>
          <internalNodes>
            0 -1 10 2.7776125818490982e-02</internalNodes>
          <leafValues>
            5.0220257043838501e-01 -6.2230455875396729e-01</leafValues></_></weakClassifiers></_></stages>
  <features>
    <_>
      <rects>
        <_>
          0 0 2 6 -1.</_>
        <_>
          0 3 2 3 2.</_></rects>
      <tilted>0</tilted></_>
    <_>
      <rects>
        <_>
          0 1 8 18 -1.</_>
        <_>
          4 1 4 18 2.</_></rects>
      <tilted>0</tilted></_>
    <_>
      <rects>
        <_>
          0 2 2 9 -1.</_>
        <_>
          0 5 2 3 3.</_></rects>
      <tilted>0</tilted></_>
    <_>
      <rects>
        <_>
          0 2 2 18 -1.</_>
        <_>
          0 8 2 6 3.</_></rects>
      <tilted>0</tilted></_>
    <_>
      <rects>
        <_>
          0 3 1 9 -1.</_>
        <_>
          0 6 1 3 3.</_></rects>
      <tilted>0</tilted></_>
    <_>
      <rects>
        <_>
          0 5 21 18 -1.</_>
        <_>
          7 5 7 18 3.</_></rects>
      <tilted>0</tilted></_>
    <_>
      <rects>
        <_>
          0 9 21 9 -1.</_>
        <_>
          7 9 7 9 3.</_></rects>
      <tilted>0</tilted></_>
    <_>
      <rects>
        <_>
          0 21 15 3 -1.</_>
        <_>
          5 21 5 3 3.</_></rects>
      <tilted>0</tilted></_>
    <_>
      <rects>
        <_>
          1 1 6 6 -1.</_>
        <_>
          4 1 3 6 2.</_></rects>
      <tilted>0</tilted></_>
    <_>
      <rects>
        <_>
          1 4 12 6 -1.</_>
        <_>
          1 6 12 2 3.</_></rects>
      <tilted>0</tilted></_>
    <_>
      <rects>
        <_>
          1 5 10 15 -1.</_>
        <_>
          1 10 10 5 3.</_></rects>
      <tilted>0</tilted></_>
    <_>
      <rects>
        <_>
          1 14 2 6 -1.</_>
        <_>
          1 16 2 2 3.</_></rects>
      <tilted>0</tilted></_>
    <_>
      <rects>
        <_>
          1 15 1 6 -1.</_>
        <_>
          1 17 1 2 3.</_></rects>
      <tilted>0</tilted></_>
    <_>
      <rects>
        <_>
          2 12 2 9 -1.</_>
        <_>
          2 15 2 3 3.</_></rects>
      <tilted>0</tilted></_>
    <_>
      <rects>
        <_>
          2 12 18 9 -1.</_>
        <_>
          2 15 18 3 3.</_></rects>
      <tilted>0</tilted></_>
    <_>
      <rects>
        <_>
          2 23 6 1 -1.</_>
        <_>
          5 23 3 1 2.</_></rects>
      <tilted>0</tilted></_>
    <_>
      <rects>
        <_>
          3 0 21 2 -1.</_>
        <_>
          10 0 7 2 3.</_></rects>
      <tilted>0</tilted></_>
    <_>
      <rects>
        <_>
          3 0 21 17 -1.</_>
        <_>
          10 0 7 17 3.</_></rects>
      <tilted>0</tilted></_>
    <_>
      <rects>
        <_>
          3 8 19 12 -1.</_>
        <_>
          3 12 19 4 3.</_></rects>
      <tilted>0</tilted></_>
    <_>
      <rects>
        <_>
          3 10 18 3 -1.</_>
        <_>
          9 10 6 3 3.</_></rects>
      <tilted>0</tilted></_>
    <_>
      <rects>
        <_>
          3 10 21 6 -1.</_>
        <_>
          10 10 7 6 3.</_></rects>
      <tilted>0</tilted></_>
    <_>
      <rects>
        <_>
          3 11 18 2 -1.</_>
        <_>
          9 11 6 2 3.</_></rects>
      <tilted>0</tilted></_>
    <_>
      <rects>
        <_>
          3 12 13 4 -1.</_>
        <_>
          3 14 13 2 2.</_></rects>
      <tilted>0</tilted></_>
    <_>
      <rects>
        <_>
          3 12 16 9 -1.</_>
        <_>
          3 15 16 3 3.</_></rects>
      <tilted>0</tilted></_>
    <_>
      <rects>
        <_>
          3 16 21 6 -1.</_>
        <_>
          3 19 21 3 2.</_></rects>
      <tilted>0</tilted></_>
    <_>
      <rects>
        <_>
          4 5 9 2 -1.</_>
        <_>
          4 6 9 1 2.</_></rects>
      <tilted>0</tilted></_>
    <_>
      <rects>
        <_>
          5 0 3 19 -1.</_>
        <_>
          6 0 1 19 3.</_></rects>
      <tilted>0</tilted></_>
    <_>
      <rects>
        <_>
          5 10 6 4 -1.</_>
        <_>
          5 10 3 2 2.</_>
        <_>
          8 12 3 2 2.</_></rects>
      <tilted>0</tilted></_>
    <_>
      <rects>
        <_>
          5 12 3 3 -1.</_>
        <_>
          6 12 1 3 3.</_></rects>
      <tilted>0</tilted></_>
    <_>
      <rects>
        <_>
          5 21 12 2 -1.</_>
        <_>
          5 22 12 1 2.</_></rects>
      <tilted>0</tilted></_>
    <_>
      <rects>
        <_>
          5 23 6 1 -1.</_>
        <_>
          7 23 2 1 3.</_></rects>
      <tilted>0</tilted></_>
    <_>
      <rects>
        <_>
          6 3 18 14 -1.</_>
        <_>
          6 3 9 7 2.</_>
        <_>
          15 10 9 7 2.</_></rects>
      <tilted>0</tilted></_>
    <_>
      <rects>
        <_>
          6 4 2 18 -1.</_>
        <_>
          6 4 1 9 2.</_>
        <_>
          7 13 1 9 2.</_></rects>
      <tilted>0</tilted></_>
    <_>
      <rects>
        <_>
          6 6 16 6 -1.</_>
        <_>
          14 6 8 6 2.</_></rects>
      <tilted>0</tilted></_>
    <_>
      <rects>
        <_>
          7 5 6 15 -1.</_>
        <_>
          9 5 2 15 3.</_></rects>
      <tilted>0</tilted></_>
    <_>
      <rects>
        <_>
          7 18 8 6 -1.</_>
        <_>
          7 20 8 2 3.</_></rects>
      <tilted>0</tilted></_>
    <_>
      <rects>
        <_>
          7 22 16 2 -1.</_>
        <_>
          15 22 8 2 2.</_></rects>
      <tilted>0</tilted></_>
    <_>
      <rects>
        <_>
          8 1 5 14 -1.</_>
        <_>
          8 8 5 7 2.</_></rects>
      <tilted>0</tilted></_>
    <_>
      <rects>
        <_>
          8 15 9 3 -1.</_>
        <_>
          8 16 9 1 3.</_></rects>
      <tilted>0</tilted></_>
    <_>
      <rects>
        <_>
          9 1 14 6 -1.</_>
        <_>
          9 1 7 3 2.</_>
        <_>
          16 4 7 3 2.</_></rects>
      <tilted>0</tilted></_>
    <_>
      <rects>
        <_>
          9 8 3 2 -1.</_>
        <_>
          10 8 1 2 3.</_></rects>
      <tilted>0</tilted></_>
    <_>
      <rects>
        <_>
          9 12 3 6 -1.</_>
        <_>
          10 12 1 6 3.</_></rects>
      <tilted>0</tilted></_>
    <_>
      <rects>
        <_>
          9 12 4 2 -1.</_>
        <_>
          9 12 2 1 2.</_>
        <_>
          11 13 2 1 2.</_></rects>
      <tilted>0</tilted></_>
    <_>
      <rects>
        <_>
          9 12 14 9 -1.</_>
        <_>
          9 15 14 3 3.</_></rects>
      <tilted>0</tilted></_>
    <_>
      <rects>
        <_>
          9 13 8 2 -1.</_>
        <_>
          9 14 8 1 2.</_></rects>
      <tilted>0</tilted></_>
    <_>
      <rects>
        <_>
          9 17 4 7 -1.</_>
        <_>
          11 17 2 7 2.</_></rects>
      <tilted>0</tilted></_>
    <_>
      <rects>
        <_>
          10 0 8 10 -1.</_>
        <_>
          10 5 8 5 2.</_></rects>
      <tilted>0</tilted></_>
    <_>
      <rects>
        <_>
          11 2 6 5 -1.</_>
        <_>
          13 2 2 5 3.</_></rects>
      <tilted>0</tilted></_>
    <_>
      <rects>
        <_>
          11 6 2 8 -1.</_>
        <_>
          12 6 1 8 2.</_></rects>
      <tilted>0</tilted></_>
    <_>
      <rects>
        <_>
          11 6 10 12 -1.</_>
        <_>
          11 10 10 4 3.</_></rects>
      <tilted>0</tilted></_>
    <_>
      <rects>
        <_>
          11 11 2 6 -1.</_>
        <_>
          11 11 1 3 2.</_>
        <_>
          12 14 1 3 2.</_></rects>
      <tilted>0</tilted></_>
    <_>
      <rects>
        <_>
          12 1 4 3 -1.</_>
        <_>
          12 2 4 1 3.</_></rects>
      <tilted>0</tilted></_>
    <_>
      <rects>
        <_>
          13 1 1 15 -1.</_>
        <_>
          13 6 1 5 3.</_></rects>
      <tilted>0</tilted></_>
    <_>
      <rects>
        <_>
          13 13 3 9 -1.</_>
        <_>
          14 13 1 9 3.</_></rects>
      <tilted>0</tilted></_>
    <_>
      <rects>
        <_>
          14 0 3 15 -1.</_>
        <_>
          15 0 1 15 3.</_></rects>
      <tilted>0</tilted></_>
    <_>
      <rects>
        <_>
          14 0 10 1 -1.</_>
        <_>
          19 0 5 1 2.</_></rects>
      <tilted>0</tilted></_>
    <_>
      <rects>
        <_>
          14 12 8 6 -1.</_>
        <_>
          14 12 4 3 2.</_>
        <_>
          18 15 4 3 2.</_></rects>
      <tilted>0</tilted></_>
    <_>
      <rects>
        <_>
          16 0 6 6 -1.</_>
        <_>
          16 2 6 2 3.</_></rects>
      <tilted>0</tilted></_>
    <_>
      <rects>
        <_>
          19 0 2 9 -1.</_>
        <_>
          19 3 2 3 3.</_></rects>
      <tilted>0</tilted></_>
    <_>
      <rects>
        <_>
          20 11 2 4 -1.</_>
        <_>
          21 11 1 4 2.</_></rects>
      <tilted>0</tilted></_>
    <_>
      <rects>
        <_>
          20 13 4 10 -1.</_>
        <_>
          22 13 2 10 2.</_></rects>
      <tilted>0</tilted></_>
    <_>
      <rects>
        <_>
          21 4 1 9 -1.</_>
        <_>
          21 7 1 3 3.</_></rects>
      <tilted>0</tilted></_>
    <_>
      <rects>
        <_>
          21 7 1 6 -1.</_>
        <_>
          21 9 1 2 3.</_></rects>
      <tilted>0</tilted></_>
    <_>
      <rects>
        <_>
          22 9 2 7 -1.</_>
        <_>
          23 9 1 7 2.</_></rects>
      <tilted>0</tilted></_>
    <_>
      <rects>
        <_>
          22 23 2 1 -1.</_>
        <_>
          23 23 1 1 2.</_></rects>
      <tilted>0</tilted></_>
    <_>
      <rects>
        <_>
          23 19 1 2 -1.</_>
        <_>
          23 20 1 1 2.</_></rects>
      <tilted>0</tilted></_></features></cascade>
</opencv_storage>
